<?xml version="1.0"?>
<opencv_storage>
<cascade>
  <stageType>BOOST</stageType>
  <featureType>HAAR</featureType>
  <height>24</height>
  <width>24</width>
  <stageParams>
    <boostType>GAB</boostType>
    <minHitRate>9.9500000476837158e-01</minHitRate>
    <maxFalseAlarm>5.0000000000000000e-01</maxFalseAlarm>
    <weightTrimRate>9.4999999999999996e-01</weightTrimRate>
    <maxDepth>1</maxDepth>
    <maxWeakCount>100</maxWeakCount></stageParams>
  <featureParams>
    <maxCatCount>0</maxCatCount>
    <featSize>1</featSize>
    <mode>BASIC</mode></featureParams>
  <stageNum>5</stageNum>
  <stages>
    <!-- stage 0 -->
    <_>
      <maxWeakCount>1</maxWeakCount>
      <stageThreshold>2.4275061488151550e-01</stageThreshold>
      <weakClassifiers>
        <_>
          <internalNodes>
            0 -1 4 -1.3200132548809052e-01</internalNodes>
          <leafValues>
            2.4275061488151550e-01 -1.</leafValues></_></weakClassifiers></_>
    <!-- stage 1 -->
    <_>
      <maxWeakCount>2</maxWeakCount>
      <stageThreshold>-8.2754820585250854e-01</stageThreshold>
      <weakClassifiers>
        <_>
          <internalNodes>
            0 -1 3 2.4566385895013809e-02</internalNodes>
          <leafValues>
            -9.8398494720458984e-01 -3.9947610348463058e-02</leafValues></_>
        <_>
          <internalNodes>
            0 -1 7 -1.7218457534909248e-02</internalNodes>
          <leafValues>
            -1. 1.5643672645092010e-01</leafValues></_></weakClassifiers></_>
    <!-- stage 2 -->
    <_>
      <maxWeakCount>2</maxWeakCount>
      <stageThreshold>-5.4646760225296021e-01</stageThreshold>
      <weakClassifiers>
        <_>
          <internalNodes>
            0 -1 2 3.7545808590948582e-03</internalNodes>
          <leafValues>
            -8.5185188055038452e-01 2.5201380252838135e-01</leafValues></_>
        <_>
          <internalNodes>
            0 -1 8 9.3330051749944687e-03</internalNodes>
          <leafValues>
            -7.9848140478134155e-01 4.0106120705604553e-01</leafValues></_></weakClassifiers></_>
    <!-- stage 3 -->
    <_>
      <maxWeakCount>3</maxWeakCount>
      <stageThreshold>-7.9594385623931885e-01</stageThreshold>
      <weakClassifiers>
        <_>
          <internalNodes>
            0 -1 1 -1.1454689316451550e-02</internalNodes>
          <leafValues>
            -1.2955224514007568e-01 -9.7873419523239136e-01</leafValues></_>
        <_>
          <internalNodes>
            0 -1 0 -5.5591249838471413e-03</internalNodes>
          <leafValues>
            -9.2343503236770630e-01 2.2372128069400787e-01</leafValues></_>
        <_>
          <internalNodes>
            0 -1 5 -6.1299979279283434e-05</internalNodes>
          <leafValues>
            2.5704342126846313e-01 -1.</leafValues></_></weakClassifiers></_>
    <!-- stage 4 -->
    <_>
      <maxWeakCount>2</maxWeakCount>
      <stageThreshold>-8.5443413257598877e-01</stageThreshold>
      <weakClassifiers>
        <_>
          <internalNodes>
            0 -1 6 -1.4424119144678116e-03</internalNodes>
          <leafValues>
            -9.7731757164001465e-01 -1.0357583314180374e-01</leafValues></_>
        <_>
          <internalNodes>
            0 -1 9 -1.7343112267553806e-03</internalNodes>
          <leafValues>
            -9.9749588966369629e-01 1.2288344651460648e-01</leafValues></_></weakClassifiers></_></stages>
  <features>
    <_>
      <rects>
        <_>
          0 23 22 1 -1.</_>
        <_>
          11 23 11 1 2.</_></rects>
      <tilted>0</tilted></_>
    <_>
      <rects>
        <_>
          1 10 7 10 -1.</_>
        <_>
          1 15 7 5 2.</_></rects>
      <tilted>0</tilted></_>
    <_>
      <rects>
        <_>
          1 18 1 6 -1.</_>
        <_>
          1 21 1 3 2.</_></rects>
      <tilted>0</tilted></_>
    <_>
      <rects>
        <_>
          7 0 16 10 -1.</_>
        <_>
          7 5 16 5 2.</_></rects>
      <tilted>0</tilted></_>
    <_>
      <rects>
        <_>
          9 5 14 14 -1.</_>
        <_>
          16 5 7 14 2.</_></rects>
      <tilted>0</tilted></_>
    <_>
      <rects>
        <_>
          10 12 7 2 -1.</_>
        <_>
          10 13 7 1 2.</_></rects>
      <tilted>0</tilted></_>
    <_>
      <rects>
        <_>
          10 12 10 2 -1.</_>
        <_>
          10 13 10 1 2.</_></rects>
      <tilted>0</tilted></_>
    <_>
      <rects>
        <_>
          14 0 4 18 -1.</_>
        <_>
          16 0 2 18 2.</_></rects>
      <tilted>0</tilted></_>
    <_>
      <rects>
        <_>
          14 0 5 6 -1.</_>
        <_>
          14 3 5 3 2.</_></rects>
      <tilted>0</tilted></_>
    <_>
      <rects>
        <_>
          15 0 2 24 -1.</_>
        <_>
          15 12 2 12 2.</_></rects>
      <tilted>0</tilted></_></features></cascade>
</opencv_storage>
